{"height": 3427, "width": 4117, "planes": 9, "samples": 20, "format": "jpg", "quality": 95, "type": "neural", "colorspace": "bgr", "max": [7.759247303009033, 10.417548179626465, 19.38460922241211, 8.109153747558594, 15.539266586303711, 9.128748893737793, 8.609326362609863, 32.982261657714844, 14.654804229736328], "min": [-20.86182403564453, -11.624051094055176, -25.254764556884766, -9.763145446777344, -19.64554214477539, -8.897391319274902, -8.38257884979248, -17.521085739135742, -16.616132736206055], "weights": [[-0.024621, 0.050661, 0.003204, -0.052081, 0.075807, -0.026068, 0.049752, 0.021202, -0.012853, -9.869499, -2.450785, 0.0, 0.140859, -0.007232, 0.11506, 0.357431, 0.192978, -0.137353, -0.258256, -0.02319, -0.047928, -3.673048, 1.493299, 0.0, -0.031773, 0.034496, -0.23695, 0.008912, -0.082674, 0.148107, -0.13441, -0.07102, 0.201727, 0.756468, -0.417875, 0.0, -0.037631, -0.15988, 0.076205, -0.208501, -0.07341, -0.063817, -0.195951, 0.145682, -0.16817, -0.17545, -2.18048, 0.0, 0.013497, -0.051924, 0.106401, 0.063434, 0.334742, -0.249143, -0.022861, 0.090984, -0.071899, -2.713092, 4.198591, 0.0, -0.027878, -0.030435, 0.044377, -0.049496, 0.483011, -0.063349, 0.003283, -0.431326, -0.031373, -7.30633, -1.130787, 0.0, -0.01849, -0.017586, 0.017897, 0.089828, -0.025358, -0.044006, -0.080223, 0.020968, -0.038973, -3.443559, -7.022077, 0.0, 0.031488, -0.039017, -0.095044, 0.108007, 0.004848, 0.016372, 0.30931, 0.19515, 0.138996, 2.249398, 3.142944, 0.0, 0.029454, -0.049498, 0.021028, -0.057302, 0.045863, -0.1553, -0.006586, -0.012832, -0.028066, -3.005526, -5.383121, 0.0, 0.210509, -0.028122, 0.090792, -0.289619, 0.20434, -0.445929, 0.165778, -0.023817, 0.113046, -0.999618, -0.615967, 0.0, -0.079813, -0.004672, 0.076168, -0.046484, 0.21714, 0.056657, -0.05047, 0.526707, 0.077559, 1.834792, 7.58313, 0.0, -0.045566, -0.045391, 0.044956, -0.128889, -0.137655, 0.040058, -0.125504, 0.108358, -0.153148, 4.530712, -1.430811, 0.0, 0.093398, -0.003969, 0.016856, -0.188988, 0.114425, -0.258219, 0.0762, 0.031882, 0.058046, -1.686034, 5.182902, 0.0, -0.106521, 0.104103, -0.003586, 0.011102, 0.036032, -0.359773, -0.030019, 0.018748, -0.097304, -0.017576, -0.130478, 0.0, 0.019595, -0.141021, 0.44643, 0.069373, -0.139029, 0.219666, 0.509915, -0.006331, -0.601291, -0.03086, -0.0351, 0.0, 0.024951, -0.001248, 0.026862, -0.014415, 0.055611, -0.110407, -0.02918, 0.007807, -0.023751, 3.089035, -3.030974, 0.0, -0.038167, 0.006171, 0.008161, 0.054519, 0.005136, 0.006975, -0.01924, -0.044505, -0.065983, 6.681536, 8.942025, 0.0, -0.004869, 0.03973, 0.053912, -0.011122, -0.398352, -0.030407, 0.001167, -0.076658, 0.082584, 3.016179, -4.35459, 0.0, 0.352359, 0.201672, 0.195375, 0.087627, 0.117866, 0.028045, -0.101697, 0.073076, 0.200055, 0.040204, 0.19716, 0.0, -0.170427, 0.147708, -0.035221, 0.111026, 0.124439, -0.184777, 0.032826, 0.103576, -0.068753, -0.870707, 0.322365, 0.0], [-0.459214, 0.15519, -0.012099, 0.232811, -0.28303, -0.060427, -0.498506, -0.12993, 0.385399, 0.040078, -0.020934, -0.156848, 0.158147, -0.272026, 0.051625, -0.569315, -1.231625, -0.019981, -0.080431, 0.43593, -0.319842, -0.103174, -0.480914, -0.168566, 0.12705, -0.343451, 0.016032, -0.040866, -0.155955, 0.422796, -0.108261, 0.619624, 0.083032, -0.081838, -0.307812, 0.230142, 0.02093, 0.050067, 0.13745, -0.223994, 0.29179, 0.338351, -0.269018, -0.096945, -0.105863, -0.150432, -0.640013, -0.027631, 0.409571, 0.036375, -0.141493, -0.058372, 0.119728, -0.341708, -0.120753, 1.065269, -2.107244, 0.032055, -0.083457, 0.092584, -0.415877, -0.137733, -0.113193, 0.035226, 0.028694, -0.330488, 0.988747, 0.01758, -0.583822, 0.595342, -0.065241, 0.067369, -0.580078, 0.353587, -0.060992, -2.260932, -0.070447, -0.25938, 0.054218, -0.159955, 0.508453, 0.522795, 0.308333, 0.145892, -0.016715, -0.113287, -0.089235, -0.128222, 0.03114, -0.258091, 0.077379, -0.528081, 0.069367, -0.300097, 0.165201, 2.734604, 0.515434, 0.050367, -0.120555, 0.014206, 0.173003, -0.406622, -0.219257, -0.159433, 0.060881, -0.164957, 0.002676, -0.38783, -0.026512, -0.128153, -0.047271, 0.033138, 0.123956, 0.346252, -0.029206, 0.213775, -0.052713, -0.254732, 0.111864, -0.00749, -0.130942, -0.339712, -0.378426, 0.105039, 0.193187, -0.104934, 1.760602, 0.042413, -2.162082, 0.568997, -0.200277, -0.02321, -0.454193, -0.116381, -0.141126, -1.438785, 0.665594, -0.151612, 0.009722, 0.260557, 0.213921, -0.176545, -0.400447, -2.003861, -0.046012, -0.067975, 0.6726, -0.533573, 0.772611, 0.430138, 0.107517, 2.352514, 1.27426, -0.742912, -0.316767, 0.308911, -0.218275, -0.089466, -0.288583, 0.28304, -0.110465, 0.080503, -0.53559, 0.061059, 0.216818, -0.408545, -0.722323, 0.006901, 0.412982, 0.326415, -0.023372, 0.229143, -0.066075, 0.478846, -0.310133, -0.045301, 0.573388, 0.015338, 0.172453, -0.696691, 0.176165, -0.293466, -0.211872, -0.0579, 0.112356, 0.339725, -0.655134, 0.057524, 0.281119, -0.075329, -0.160533, -0.166857, 0.226827, -0.529335, -0.016368, 0.412905, 0.133096, 0.161785, -0.060092, 0.478406, -0.077464, 0.514304, -0.958978, -0.617684, -0.574982, -0.282992, -0.057714, -0.216433, 0.106159, -0.622955, -0.190643, 0.531693, -1.182796, -0.061368, -0.262851, 0.248304, -2.31885, -0.227423, -0.17507, 0.366099, -0.415204, 0.311089, 0.026697, 0.663192, -0.609202, -0.165503, 0.425573, -0.423759, -0.808088, 0.161001, -0.031691, -0.807366, -0.036362, -0.011043, 0.136376, -0.326758, 0.223109, -0.088782, 0.026787, 0.623657, 0.089168, -0.42656, -0.241307, -0.035642, -0.32764, -0.533509, -0.102214, -1.139921, -0.177052, -0.146831, -0.37044, -0.639022, 0.202138, -0.150284, -0.259526, 0.328106, 0.045649, -0.943714, 0.724013, 0.109448, 0.027375, -0.217097, 0.066365, 0.392864, 0.083103, 0.142128, -0.085844, -0.290878, 0.186519, -1.318557, 0.100875, 0.183692, 0.188804, -0.787677, -3.591749, -0.33719, -0.184612, -0.291733, -1.086076, -0.715342, 0.033584, -0.092685, -0.587174, -0.034641, 0.197389, -3.286747, 0.086792, -0.791499, 0.163348, 0.480274, -2.615757, -0.545248, -0.082484, -0.185154, -0.188558, 0.066308, 0.230424, -3.924692, -0.423902, -0.388812, -0.068137, -0.219928, -1.092715, -0.240985, -0.151666, -0.235424, 0.001757, -0.536511, -0.025548, -0.430876, -0.194051, -0.08957, -0.06767, -0.433203, -0.917177, -0.025432, -0.024158, -0.400384, -0.455728, 0.041607, -0.249409, -0.176089, -0.101257, 0.222272, -0.114276, -0.109967, -0.224399, -0.166297, 0.026518, 0.341855, -0.135168, -0.39233, -0.217528, -0.30946, 0.00948, -0.618952, -0.682134, -0.075805, 0.015523, 0.665173, 0.004643, -0.097252, 0.049559, -0.024316, -0.043869, -0.086558, -0.009844, -0.224179, -0.045959, -0.093875, -0.056785, -0.084421, 0.018636, -0.006515, -0.623139, 0.010449, -0.019935, -0.154872, -0.257353, 0.177414, -0.124594, -0.124006, -0.318402, 0.456578, -0.116179, -0.028983, -0.079006, -0.219933, -0.384273, -0.134147, -0.152901, -0.703375, -0.266882, -0.091078, -0.195577, -0.02179, 0.031274, -0.105174, 0.321102, 0.070604, 0.313398, 0.015195, 0.298596, 0.317271, 0.235688, 0.140262, 0.164416, 0.128877, -0.352319, 0.282023, 0.096264, -0.318296, 0.037958, -0.164956, 0.045725, 0.481733, 1.065392, 0.099088, 0.006406, -0.136303], [-0.084053, -0.044786, -0.072989, -0.063736, 0.030755, 0.193658, 0.042397, -0.094293, 0.045371, 0.061847, 0.027152, 0.057867, 0.233568, 0.014126, 0.310361, 0.052356, 0.055169, -0.068172, -0.052322, -0.058369, -0.098683, -0.051179, -0.088569, -0.071994, 0.038534, 0.186492, 0.048481, -0.140947, 0.053885, 0.074841, 0.032421, 0.06587, 0.275809, -0.020199, 0.29362, -0.164419, 0.065768, 0.080764, -0.0673, -0.068147, -0.108204, -0.055712, -0.097794, -0.077617, 0.042712, 0.185177, 0.053506, -0.176154, 0.060123, 0.082584, 0.035845, 0.072484, 0.29001, 0.02329, 0.309147, -0.306368, 0.073255, 0.180134, -0.078685, -0.075163]], "biases": [[-1.571678, -0.626752, 1.104126, 0.861336, 0.11166, -1.69877, -1.640086, -0.590582, 0.467591, -0.543541, -0.051532, -1.205337, -1.28491, 0.813509, 0.371514, -2.093931, -6.685378, -0.06915, 1.180252, 1.631677], [-2.078982, 0.948681, -2.122594, -1.252162, -0.959676, -0.976083, 0.150631, -3.106626, 1.051653, -0.536714, -0.94501, -0.48069, -2.18677, -0.753161, -2.483525, 0.971742, -0.074413, -0.261057, 1.0217, 0.486974], [0.766853, 0.638456, 0.632218]]}