{"height": 10000, "width": 10000, "planes": 9, "samples": 20, "format": "jpg", "quality": 95, "type": "neural", "colorspace": "bgr", "max": [6.250319957733154, 13.424261093139648, 5.100878715515137, 12.164793014526367, 23.330387115478516, 10.955789566040039, 6.430923938751221, 12.44166374206543, 9.068441390991211], "min": [-10.890928268432617, -13.860443115234375, -7.4791259765625, -10.447298049926758, -12.872177124023438, -10.584009170532227, -3.066875696182251, -10.960742950439453, -9.405200004577637], "weights": [[-0.030298, -0.301797, 0.022226, 0.002751, -0.048202, -0.113353, -0.035058, 0.199669, 0.12893, 0.195407, 0.195325, 0.0, -0.137071, -0.195959, -0.277073, -0.241123, -0.187264, -0.132743, 0.084092, -0.577158, 0.202646, -0.56972, -6.939328, 0.0, -0.021172, 0.014755, -0.012559, 0.075355, -0.003692, -0.009608, -0.007188, -0.000257, -0.007929, 4.64717, -1.884888, 0.0, 0.2858, -0.168107, -0.228318, 0.05589, -0.067379, -0.219568, -0.055039, -0.120515, -0.188522, -0.194539, -2.325231, 0.0, 0.07431, 0.060182, 0.001229, -0.04829, 0.010367, 0.145074, -0.001717, 0.058309, 0.01235, 1.482124, 1.25449, 0.0, 0.208984, -0.413453, 0.265853, -0.09718, -0.288218, 0.160097, -0.042931, -0.31976, -0.222283, -0.278213, -7.278067, 0.0, 0.01216, -0.052161, -0.120518, -0.117916, -0.064502, -0.14691, -0.004999, -0.092419, -0.212145, 0.473307, -2.102565, 0.0, 0.042203, 0.073294, -0.079992, -0.078201, 0.060979, 0.060394, -0.012567, 0.034541, 0.152376, 4.854197, 4.173849, 0.0, 0.031391, 0.007703, -0.012103, 0.010039, 0.021704, 0.01212, -0.003278, 0.021399, 0.038268, -3.530772, -2.254989, 0.0, 0.12832, -0.062032, 0.022411, -0.26369, -0.000516, -0.04893, -0.00772, -0.000178, -0.043378, 1.565836, -1.404932, 0.0, 0.329149, 0.407832, 0.097781, 0.220236, -0.686157, -0.218109, 0.028965, 0.183008, 0.05333, 10.091477, -0.078826, 0.0, -0.311504, -0.034733, -0.014624, 0.103565, -0.000497, 0.011641, -0.026504, -0.036774, -0.134982, -3.142126, 0.060159, 0.0, -0.004659, -0.002914, 0.051987, 0.093265, 0.008139, -0.015946, -0.011708, 0.015701, 0.00746, -5.583677, 3.376582, 0.0, -0.049633, -0.320951, -0.455047, -0.054482, -0.033823, 0.067405, -0.093771, 0.099511, -0.133207, 0.00656, -0.714709, 0.0, 0.42215, -0.233517, 0.094177, 0.217077, 1.000796, -0.104185, 0.043788, -0.423589, 0.004382, -12.689259, 0.67728, 0.0, -0.098886, 0.296761, -0.064732, 0.0797, 0.314113, -0.130588, 0.0469, 0.57936, -0.191084, 0.055329, 6.679395, 0.0, -0.023966, -0.043172, -0.044919, -0.061891, -0.052746, -0.066063, -0.005321, -0.07779, -0.064482, -0.024337, -5.314445, 0.0, 0.014288, -0.068714, -0.079172, -0.002531, -0.005165, 0.015327, 0.267157, 0.028343, -0.023476, -0.081776, 0.100287, 0.0, -0.27631, 0.137076, -0.222528, 0.008877, 0.108155, 0.231692, -0.068139, 0.099575, 0.161847, -0.089653, 2.227519, 0.0, 0.029656, -0.009339, -0.003256, 0.033522, -0.024211, -0.021364, 0.000597, -0.022605, -0.04086, -0.003953, 4.670346, 0.0], [-0.529648, 0.201553, 0.292031, -0.291771, -1.396925, -0.017464, -0.193965, 0.049951, 0.463721, -0.052505, 0.028629, -0.657576, 0.01268, 0.605308, -0.189001, 0.227598, -0.658007, -0.100385, -0.138576, 0.090647, -0.394651, -0.171199, 1.829326, -0.458788, -0.821718, -0.073374, -0.93809, 0.499669, 2.131502, -1.257392, -0.122302, -0.600052, 0.429417, 0.681578, -0.095095, -0.016636, 1.122796, 0.012591, -0.582836, 2.10656, -0.170358, 0.011091, -0.008798, -0.013344, -0.36227, -0.033962, -0.170179, -0.120804, -0.108413, -0.405073, -0.001509, -0.184376, -0.15826, 0.037102, -0.012977, 0.015625, -0.109503, 0.785916, -0.052858, -0.155166, -0.060798, 0.005821, -0.179523, -0.038031, -0.114378, -0.016269, 0.034977, -0.000379, -0.265321, -0.17761, 0.002891, -0.075486, -0.098752, 0.169026, 0.025595, 0.002302, -0.019226, -0.973955, -0.043671, -0.108623, 0.085437, 0.008657, -0.161152, -0.053961, 0.309891, 0.022311, 0.361252, 0.143604, -0.203366, 0.339877, 0.007666, 0.224754, 0.03292, 0.032259, 0.047146, -0.019977, 0.041152, -1.418763, 0.008059, 0.016451, -0.010607, -2.064821, 0.542233, 0.334819, -0.626491, -1.297874, 0.228614, 0.22497, 0.811987, 0.642833, -2.383858, -0.492818, 0.279676, -0.605731, -2.094959, -1.859774, 0.971651, -0.143288, -0.500958, 0.17344, 0.458286, 0.017593, -0.38875, -0.275383, 0.735242, -0.339966, -0.410461, 0.065286, -0.766553, 0.558979, -0.191023, 0.346126, 0.165687, 0.101797, -0.101248, -0.144955, -0.179036, -0.033086, -0.81594, -0.198654, 0.13199, -0.437457, 0.052188, -1.064886, 0.147225, -0.196974, 0.608566, -0.175658, 0.043461, -0.90314, -0.255729, 0.01418, 0.018342, 0.682639, -0.190276, -0.307174, 0.012743, 0.043314, -0.866984, -0.161651, 0.093693, -0.161387, 0.931044, -1.259911, -0.754933, -0.324149, -0.980393, 0.828046, 1.213347, 0.469943, -0.116949, -0.18121, 0.786951, 0.609597, -0.069801, -0.152325, 0.604502, -0.068416, -0.774157, 1.706752, 0.619509, -0.051243, -0.184944, 0.181672, 0.29343, 0.068811, -0.554498, 0.165265, -0.341545, 0.606044, 0.074091, 0.501667, -0.16508, -0.410123, 0.089209, -0.056791, 0.31421, 0.56789, 0.123336, -0.216528, -0.210925, -0.178206, 0.079565, -0.95914, 0.337204, -0.153006, 0.696237, -0.609543, 0.143304, -1.699453, -0.342595, -0.087173, -0.374048, 0.87727, -0.24152, -0.081724, -0.210422, 0.082741, -0.73542, -0.055668, -0.306986, 0.007493, 0.270957, 0.205074, -0.076247, 0.026864, -0.298815, -0.139482, 0.390063, 1.034252, 0.014853, 0.513397, -0.498475, -0.074293, 0.016751, -0.026029, -0.429121, 0.131155, 0.112514, 0.270426, 0.807594, 0.078189, 0.010115, 0.027592, 2.067079, 0.126078, 1.017186, 0.550167, -0.131101, 1.760763, 0.042312, 1.354439, 0.472119, -1.009035, 0.119409, -0.077599, 0.532871, 0.509447, 0.210843, 0.111386, -0.771067, -0.039026, -0.140138, -0.050248, -0.718181, -0.095032, 0.258813, -0.187136, -0.322891, -0.675905, -0.028839, -0.3286, -0.253721, 0.186353, -0.013607, -0.065035, -0.361559, 0.066681, -0.025708, -0.170312, -0.577893, -0.405619, -0.122503, -0.193896, -0.056621, -0.166416, -1.314496, 0.043754, -0.448358, -0.571489, -0.005252, -0.192342, -0.207493, 0.801249, 0.017709, -0.095745, 0.071013, -0.061125, -0.898099, -0.61253, -0.071206, 0.073753, 0.275972, -0.595675, -1.35023, -0.126924, 0.580185, 0.262529, 0.875482, -1.183255, -0.07445, -0.635192, -0.026566, 0.47726, -0.065801, -0.174876, -1.024251, -0.024132, -0.316368, 0.518771, -0.093694, -0.072742, 0.026356, -0.150737, -1.233576, -0.063039, -0.740876, -0.341969, 0.080399, -1.379836, -0.031656, -0.866478, -0.218929, 0.67797, -0.065537, 0.068916, -0.226254, -0.148829, -0.304413, -0.12512, 0.068444, -0.237963, 1.652148, -0.83676, 0.036787, -0.189559, -0.388808, 1.055518, 1.869989, 0.375773, -0.135543, 0.231091, 1.271097, 0.521283, -0.102078, -0.18318, 1.410928, -0.176728, -1.17661, 1.610809, -0.518259, 0.043852, -0.325655, -0.373749, -0.368995, -0.052085, 0.665875, -0.176056, 0.277429, -0.859102, 0.01584, -1.112057, 0.069146, 0.485084, 0.028533, 0.008203, -0.012083, -0.407821, 0.021615, 0.13534, -0.347472, 0.119613, 0.044356, -0.025934, 0.976236, -0.016586, 1.185949, 0.228454, 0.103085, 1.334641, 0.03126, 0.672389, 0.090162, -0.328618, 0.058015, -0.073354, -0.100025, 0.230438, 0.179333, 0.234942], [-0.007501, 0.072558, -0.040069, 0.039881, -0.029368, 0.255185, 0.050322, 0.030194, -0.151151, 0.015969, -0.021744, -0.018743, -0.019272, -0.023336, -0.014009, 0.029714, 0.059499, -0.069375, -0.018235, 0.029255, -0.008574, 0.078527, 0.001041, -0.001637, 0.000192, 0.243247, 0.054282, 0.032241, -0.162429, 0.020964, -0.02255, -0.021801, -0.024095, -0.028852, -0.014913, 0.031949, 0.063108, -0.074456, -0.017916, 0.029327, -0.009908, 0.085045, 0.036137, -0.041613, 0.03056, 0.242721, 0.060531, 0.033507, -0.174581, 0.023191, -0.024208, -0.024044, -0.025802, -0.030546, -0.014561, 0.033619, 0.063806, -0.080582, -0.016017, 0.026607]], "biases": [[0.934831, -1.934585, -1.608565, 2.194067, -0.199252, 2.322494, -0.2704, -2.922523, -1.446259, -1.609553, -2.325771, 0.73455, -3.433775, 2.487921, -4.097114, -1.569691, -1.387978, 0.183711, 1.739343, -1.959154], [0.655694, -1.456957, -0.047191, -0.252319, -0.162324, -1.856712, -0.100393, 1.652594, -0.795146, -0.835307, -0.725429, -0.381512, -0.4646, 0.074415, 0.082138, 0.568762, 0.077608, 1.181078, 0.341764, 0.317164], [0.222939, 0.215328, 0.214334]]}