{"height": 2851, "width": 3811, "planes": 9, "samples": 20, "format": "jpg", "quality": 95, "type": "neural", "colorspace": "bgr", "max": [10.241241455078125, 5.891646385192871, 14.4410400390625, 17.0899600982666, 14.193743705749512, 17.909914016723633, 5.742819786071777, 19.11887550354004, 11.120165824890137], "min": [-8.871903419494629, -13.416267395019531, -13.359465599060059, -14.298352241516113, -5.623384952545166, -12.305952072143555, -19.809783935546875, -22.956098556518555, -15.323864936828613], "weights": [[-0.019996, -0.159743, -0.204443, 0.207654, -0.108695, -0.04752, -0.211874, -0.353738, -0.284872, 6.405608, 1.569669, 0.0, -0.073323, 0.002372, -0.04258, 0.119882, -0.024568, -0.062469, 0.024227, 0.025814, -0.004089, 5.306678, 6.978451, 0.0, -0.532003, -0.275806, -0.322492, 0.947665, -1.076933, 0.293603, 0.617798, 0.292934, -0.038539, 0.009329, -0.08191, 0.0, -0.211961, -0.031019, 0.129842, -0.065819, 0.051444, -0.047931, -0.028583, 0.490564, -0.150604, -7.946703, -1.260131, 0.0, -0.059059, 0.023008, 0.060309, -0.159688, 0.084346, 0.083905, -0.02573, -0.061003, -0.036727, 3.424861, 1.40922, 0.0, 0.066974, 0.006798, -0.03157, 0.212611, -0.10902, -0.126482, -0.009951, 0.07481, 0.051976, -2.06686, -7.465275, 0.0, -0.15545, -0.956816, -0.191618, 0.743432, -0.832305, -0.44588, 0.441343, 0.244854, 0.318059, 0.0213, 0.084688, 0.0, 0.032876, 0.041688, 0.097634, -0.209615, 0.102082, 0.109333, 0.003707, -0.066758, -0.031682, -0.493648, -2.594398, 0.0, 0.064816, -0.48464, 0.25686, -0.274944, 0.241515, 0.361612, 0.259379, -0.119745, -0.071556, 0.092479, -0.094415, 0.0, 0.196117, 0.314936, 0.11943, -0.222568, 0.160628, 0.04901, -0.130489, -0.007382, -0.094145, -1.037208, -0.157859, 0.0, 0.070829, -0.167142, -0.340584, -0.02454, 0.231162, -0.037986, -0.005301, 0.334968, 0.071049, -4.951875, 4.551776, 0.0, 0.013647, 0.123582, 0.654081, -0.115108, -0.07821, 0.188382, -0.308955, 0.050964, 0.163784, -1.90561, -8.199496, 0.0, 0.044382, -0.002448, 0.012696, -0.034068, 0.031229, 0.014618, 0.020825, -0.00688, 0.015669, -7.743219, 5.522621, 0.0, -0.46574, 0.149383, -0.116711, -0.054597, 0.199609, 0.033229, 0.137951, -0.325922, 0.115607, 5.084711, 1.909019, 0.0, -0.094531, -0.063656, 0.295289, 0.345767, 0.332886, -0.151673, -0.041101, -0.24404, 0.078698, 4.616683, -5.332085, 0.0, 0.004759, 0.010133, 0.103138, -0.20211, 0.072199, 0.091392, -0.045647, -0.032168, -0.028725, 25.387232, -1.929689, 0.0, -0.232632, -0.302022, 0.106937, -0.351703, 0.327412, -0.074094, -0.733661, -0.199313, -0.03275, 1.211607, -1.244042, 0.0, -0.07398, 0.014589, 0.129123, -0.239143, 0.138766, 0.139875, 0.013369, -0.086785, -0.027505, 7.541798, -5.717052, 0.0, 0.029781, -0.022416, 0.005982, 0.003377, -0.015136, 0.00746, 0.018492, 0.009347, 0.016985, -4.044404, 3.270314, 0.0, -0.120463, -0.011752, -0.388856, -0.522735, -0.016029, 0.196246, -0.213213, -0.172058, 0.135102, 1.026171, 7.979204, 0.0], [-1.836122, 0.188721, 0.22855, -1.254392, 0.435001, 0.043024, -0.29683, 0.024092, -0.251601, 0.169774, -0.9856, -1.019943, -1.593874, -0.079192, -1.056794, -0.0539, 1.267802, 0.23437, 0.638704, -1.088059, -0.00567, -0.054133, -0.138335, 0.023884, -1.657286, -0.567708, -0.087566, -0.291065, 0.279888, -0.218054, -0.022766, -0.000684, -4.635539, -0.089416, -0.043109, 0.266318, -0.047848, 0.58639, -0.966838, 0.020749, 0.001863, 0.362766, -0.025988, 0.04132, 0.475003, 0.350398, -0.043549, -0.57763, 0.111904, -0.15296, -0.078055, -0.095306, -0.895605, -0.123382, -0.06714, -0.018532, 0.052767, 0.755314, 1.613163, -0.045094, 0.029496, -1.510943, 0.040987, -0.064141, 1.631184, -1.325558, 0.158317, -1.463882, -0.255563, 0.378463, 0.082625, 0.097228, -3.502497, 0.059986, 0.066463, 0.127668, -0.082207, -1.557542, -0.016909, -0.132035, 0.003376, -4.495447, 0.018756, 0.007223, 2.525575, 0.994517, 0.06632, -1.012154, -0.051853, -0.026145, 0.130955, -0.054226, 0.822967, -0.057939, 0.021066, 0.981167, -0.070729, -1.890544, 0.556961, 0.0017, -0.46903, -0.396067, -0.217283, -0.61707, 0.618444, -0.024737, -0.33397, -1.017536, -0.19305, -0.036634, -1.033565, -0.795146, 1.472326, -1.682794, 0.06457, 0.03568, 0.200516, 0.022212, -0.371153, 0.134524, -0.432759, 0.002754, -0.149334, -0.244482, -0.052175, 0.057068, 0.363827, -0.425833, -0.14477, -0.213122, -0.326678, -0.298161, -0.09912, -0.197002, -0.31698, -0.055636, 0.422748, 0.237875, 0.077687, -0.347084, -3.266177, 0.37091, 0.384261, -1.777139, 0.226289, -0.125771, -0.408278, -0.718748, -0.16623, -1.652644, -2.746872, -2.616628, -0.646572, -2.292343, -2.489232, -0.651106, 2.485142, 0.403541, 0.734005, -2.695987, 0.035582, 0.312186, -0.045794, 0.019234, -0.54553, -0.434171, -0.000247, -0.258549, 0.000282, 0.040233, -0.062615, -0.026908, -1.183323, -0.062235, -0.047573, -0.013942, 0.020152, -0.489086, 0.793841, -0.073985, -0.027957, -0.301403, -0.083122, 0.036456, -0.942203, -0.4559, -0.126599, -1.315618, 0.289854, -0.347402, -0.129691, -0.017816, -0.684102, -0.150951, -0.039452, -0.305523, -0.0266, -1.805237, -1.459248, -0.01787, -2.272847, 0.436411, 0.196711, -1.196277, 0.343711, -0.053489, -0.377664, 0.295905, -0.200684, -0.034813, -2.539667, -2.464493, 0.422837, 0.079426, -2.057078, -0.591565, 1.58475, 0.113898, 0.721298, -2.279665, -0.158006, -0.073609, -0.353936, -0.098382, -0.076643, 0.019955, -1.491848, -0.466292, 0.093172, 0.031796, -0.170829, -0.158262, -0.233824, -0.127912, -0.143527, -0.034183, 0.119348, 0.03721, -0.153902, -0.14605, 0.076381, 0.012007, 0.098855, -0.055336, -1.62954, -1.007467, 0.105945, 0.163288, -0.256696, 0.493447, 0.084105, 0.093379, -0.786973, 0.075998, 0.010462, -0.014088, 0.001359, -1.864457, -0.989677, -0.013954, -2.412387, 0.393727, 0.123101, -4.895847, -0.098067, -0.432599, -0.224936, 0.600185, -0.256649, -0.016418, -1.337981, -1.787364, -0.159981, 0.589545, -1.998855, -0.074586, 1.613629, 0.440896, 0.471454, -2.286819, -0.138169, -0.129053, -0.084747, -0.043968, 0.116554, 0.075817, -0.326873, -0.714021, 0.584993, -0.319359, -0.192041, -0.163658, -0.06089, -0.246144, -0.137528, -0.071606, 0.134287, 0.143772, -0.13778, -0.148119, 0.02081, -0.613096, -0.040826, 0.008711, -0.37581, -0.97666, 0.073939, -0.231078, -0.023454, -0.03598, 0.005726, 0.087106, 1.982482, -0.04858, -0.006227, -1.351908, -0.033414, -4.623263, -2.108827, -0.016421, -0.052641, 0.272823, -0.112897, -0.21864, -0.946461, 1.0529, -0.084081, -3.643758, 0.2686, -0.051526, -0.071292, -0.087395, -1.324287, 0.188577, -0.035613, 0.087008, -0.011662, 2.548615, -2.264501, 0.046236, -0.047036, 1.802206, -0.06172, 0.103221, -2.554317, 0.1281, -0.03678, 0.623577, -0.026181, -0.463435, 0.007832, 0.141334, 1.608362, 0.057266, 0.05388, -0.046531, 0.037854, 1.963502, -0.075482, 0.20769, 0.084718, 0.089718, -0.331244, 0.066916, 0.025933, -0.049254, 0.009875, 0.397745, -0.168661, -0.047501, 0.103515, 0.137295, 0.162371, 0.098275, 0.08458, 0.043044, -0.054773, -0.042556, 0.162493, 0.07162, -0.095647, 0.002915, 1.435643, 0.041317, 0.000397, -0.074526, -0.003452, 0.052999, -0.919503, -0.660218, -0.101658, -0.008717, -0.158914, -0.045966, -0.029995, -0.035091, 0.069834, -0.072056, 0.099339, -0.043626], [0.16362, 0.044342, -0.055405, -0.027397, -0.030711, 0.125302, 0.153294, -0.035832, 0.065322, -0.060937, 0.202824, 0.004861, -0.054592, -0.31321, 0.065517, 0.062674, -0.037037, -0.031296, 0.014127, 0.003634, 0.154016, 0.050934, -0.069994, -0.032998, -0.034723, 0.121403, 0.245718, -0.173224, 0.07968, -0.073601, 0.208567, -0.041283, -0.061513, -0.30675, 0.069986, 0.075682, -0.03713, -0.035213, -0.028844, -0.021232, 0.152365, 0.058355, -0.079075, -0.036008, -0.039892, 0.126001, 0.265973, -0.252148, 0.090195, -0.08688, 0.195569, -0.071628, -0.068461, -0.296404, 0.078716, 0.086721, -0.042644, -0.040698, -0.052796, 0.010912]], "biases": [[0.900072, -0.386606, -1.027887, -0.119876, 0.62671, 0.797706, -1.685292, 1.013214, 0.043882, 0.512599, 0.049875, -0.006473, -8.042969, -1.139199, 0.36045, -15.492326, 2.52364, -6.738432, -0.594767, 0.773685], [-1.710266, -0.625709, -2.493679, -1.16211, -4.354744, -0.386952, -0.233619, -2.760219, -0.414692, 1.425243, 0.650886, 0.100328, 0.882623, -0.797754, 1.440922, -0.71009, -0.235601, -1.674433, -0.75995, -0.472396], [0.432073, 0.412636, 0.405263]]}